digraph Tree {
node [shape=box, style="filled, rounded", color="black", fontname=helvetica] ;
edge [fontname=helvetica] ;
0 [label="x <= 0.4207\nentropy = 0.5247\nsamples = 5000\nvalue = [592, 4408]", fillcolor="#399de5dd"] ;
1 [label="x <= -0.5003\nentropy = 0.6606\nsamples = 3451\nvalue = [591, 2860]", fillcolor="#399de5ca"] ;
0 -> 1 [labeldistance=2.5, labelangle=45, headlabel="True"] ;
2 [label="entropy = 0.0\nsamples = 1204\nvalue = [0, 1204]", fillcolor="#399de5ff"] ;
1 -> 2 ;
3 [label="y <= 0.3918\nentropy = 0.8313\nsamples = 2247\nvalue = [591, 1656]", fillcolor="#399de5a4"] ;
1 -> 3 ;
4 [label="y <= -0.5\nentropy = 0.9588\nsamples = 1538\nvalue = [586, 952]", fillcolor="#399de562"] ;
3 -> 4 ;
5 [label="entropy = 0.0\nsamples = 576\nvalue = [0, 576]", fillcolor="#399de5ff"] ;
4 -> 5 ;
6 [label="x <= 0.0234\nentropy = 0.9653\nsamples = 962\nvalue = [586, 376]", fillcolor="#e581395b"] ;
4 -> 6 ;
7 [label="y <= 0.0841\nentropy = 0.6234\nsamples = 566\nvalue = [478, 88]", fillcolor="#e58139d0"] ;
6 -> 7 ;
8 [label="y <= 0.0066\nentropy = 0.1013\nsamples = 379\nvalue = [374, 5]", fillcolor="#e58139fc"] ;
7 -> 8 ;
9 [label="entropy = 0.0\nsamples = 330\nvalue = [330, 0]", fillcolor="#e58139ff"] ;
8 -> 9 ;
10 [label="x <= -0.05\nentropy = 0.4754\nsamples = 49\nvalue = [44, 5]", fillcolor="#e58139e2"] ;
8 -> 10 ;
11 [label="entropy = 0.0\nsamples = 43\nvalue = [43, 0]", fillcolor="#e58139ff"] ;
10 -> 11 ;
12 [label="x <= -0.0227\nentropy = 0.65\nsamples = 6\nvalue = [1, 5]", fillcolor="#399de5cc"] ;
10 -> 12 ;
13 [label="x-y <= 0.0827\nentropy = 1.0\nsamples = 2\nvalue = [1, 1]", fillcolor="#e5813900"] ;
12 -> 13 ;
14 [label="entropy = 0.0\nsamples = 1\nvalue = [1, 0]", fillcolor="#e58139ff"] ;
13 -> 14 ;
15 [label="entropy = 0.0\nsamples = 1\nvalue = [0, 1]", fillcolor="#399de5ff"] ;
13 -> 15 ;
16 [label="entropy = 0.0\nsamples = 4\nvalue = [0, 4]", fillcolor="#399de5ff"] ;
12 -> 16 ;
17 [label="x <= -0.2382\nentropy = 0.9909\nsamples = 187\nvalue = [104, 83]", fillcolor="#e5813933"] ;
7 -> 17 ;
18 [label="y <= 0.3082\nentropy = 0.3795\nsamples = 95\nvalue = [88, 7]", fillcolor="#e58139eb"] ;
17 -> 18 ;
19 [label="entropy = 0.0\nsamples = 71\nvalue = [71, 0]", fillcolor="#e58139ff"] ;
18 -> 19 ;
20 [label="x <= -0.3758\nentropy = 0.8709\nsamples = 24\nvalue = [17, 7]", fillcolor="#e5813996"] ;
18 -> 20 ;
21 [label="entropy = 0.0\nsamples = 16\nvalue = [16, 0]", fillcolor="#e58139ff"] ;
20 -> 21 ;
22 [label="x <= -0.3312\nentropy = 0.5436\nsamples = 8\nvalue = [1, 7]", fillcolor="#399de5db"] ;
20 -> 22 ;
23 [label="entropy = 1.0\nsamples = 2\nvalue = [1, 1]", fillcolor="#e5813900"] ;
22 -> 23 ;
24 [label="entropy = 0.0\nsamples = 6\nvalue = [0, 6]", fillcolor="#399de5ff"] ;
22 -> 24 ;
25 [label="y <= 0.1761\nentropy = 0.6666\nsamples = 92\nvalue = [16, 76]", fillcolor="#399de5c9"] ;
17 -> 25 ;
26 [label="x <= -0.1609\nentropy = 0.9829\nsamples = 26\nvalue = [15, 11]", fillcolor="#e5813944"] ;
25 -> 26 ;
27 [label="entropy = 0.0\nsamples = 15\nvalue = [15, 0]", fillcolor="#e58139ff"] ;
26 -> 27 ;
28 [label="entropy = 0.0\nsamples = 11\nvalue = [0, 11]", fillcolor="#399de5ff"] ;
26 -> 28 ;
29 [label="x <= -0.2197\nentropy = 0.1133\nsamples = 66\nvalue = [1, 65]", fillcolor="#399de5fb"] ;
25 -> 29 ;
30 [label="x <= -0.2198\nentropy = 0.5436\nsamples = 8\nvalue = [1, 7]", fillcolor="#399de5db"] ;
29 -> 30 ;
31 [label="entropy = 0.0\nsamples = 7\nvalue = [0, 7]", fillcolor="#399de5ff"] ;
30 -> 31 ;
32 [label="entropy = 0.0\nsamples = 1\nvalue = [1, 0]", fillcolor="#e58139ff"] ;
30 -> 32 ;
33 [label="entropy = 0.0\nsamples = 58\nvalue = [0, 58]", fillcolor="#399de5ff"] ;
29 -> 33 ;
34 [label="y <= -0.1728\nentropy = 0.8454\nsamples = 396\nvalue = [108, 288]", fillcolor="#399de59f"] ;
6 -> 34 ;
35 [label="y <= -0.3408\nentropy = 0.7313\nsamples = 127\nvalue = [101, 26]", fillcolor="#e58139bd"] ;
34 -> 35 ;
36 [label="entropy = 0.0\nsamples = 63\nvalue = [63, 0]", fillcolor="#e58139ff"] ;
35 -> 36 ;
37 [label="x <= 0.229\nentropy = 0.9745\nsamples = 64\nvalue = [38, 26]", fillcolor="#e5813951"] ;
35 -> 37 ;
38 [label="y <= -0.1769\nentropy = 0.1872\nsamples = 35\nvalue = [34, 1]", fillcolor="#e58139f8"] ;
37 -> 38 ;
39 [label="entropy = 0.0\nsamples = 33\nvalue = [33, 0]", fillcolor="#e58139ff"] ;
38 -> 39 ;
40 [label="y <= -0.1748\nentropy = 1.0\nsamples = 2\nvalue = [1, 1]", fillcolor="#e5813900"] ;
38 -> 40 ;
41 [label="entropy = 0.0\nsamples = 1\nvalue = [0, 1]", fillcolor="#399de5ff"] ;
40 -> 41 ;
42 [label="entropy = 0.0\nsamples = 1\nvalue = [1, 0]", fillcolor="#e58139ff"] ;
40 -> 42 ;
43 [label="y <= -0.3055\nentropy = 0.5788\nsamples = 29\nvalue = [4, 25]", fillcolor="#399de5d6"] ;
37 -> 43 ;
44 [label="x-y <= -0.6564\nentropy = 0.9183\nsamples = 6\nvalue = [4, 2]", fillcolor="#e581397f"] ;
43 -> 44 ;
45 [label="entropy = 0.0\nsamples = 2\nvalue = [0, 2]", fillcolor="#399de5ff"] ;
44 -> 45 ;
46 [label="entropy = 0.0\nsamples = 4\nvalue = [4, 0]", fillcolor="#e58139ff"] ;
44 -> 46 ;
47 [label="entropy = 0.0\nsamples = 23\nvalue = [0, 23]", fillcolor="#399de5ff"] ;
43 -> 47 ;
48 [label="y <= -0.0506\nentropy = 0.174\nsamples = 269\nvalue = [7, 262]", fillcolor="#399de5f8"] ;
34 -> 48 ;
49 [label="x <= 0.122\nentropy = 0.5436\nsamples = 56\nvalue = [7, 49]", fillcolor="#399de5db"] ;
48 -> 49 ;
50 [label="x <= 0.0836\nentropy = 0.5436\nsamples = 8\nvalue = [7, 1]", fillcolor="#e58139db"] ;
49 -> 50 ;
51 [label="entropy = 0.0\nsamples = 6\nvalue = [6, 0]", fillcolor="#e58139ff"] ;
50 -> 51 ;
52 [label="x <= 0.103\nentropy = 1.0\nsamples = 2\nvalue = [1, 1]", fillcolor="#e5813900"] ;
50 -> 52 ;
53 [label="entropy = 0.0\nsamples = 1\nvalue = [0, 1]", fillcolor="#399de5ff"] ;
52 -> 53 ;
54 [label="entropy = 0.0\nsamples = 1\nvalue = [1, 0]", fillcolor="#e58139ff"] ;
52 -> 54 ;
55 [label="entropy = 0.0\nsamples = 48\nvalue = [0, 48]", fillcolor="#399de5ff"] ;
49 -> 55 ;
56 [label="entropy = 0.0\nsamples = 213\nvalue = [0, 213]", fillcolor="#399de5ff"] ;
48 -> 56 ;
57 [label="y <= 0.448\nentropy = 0.0605\nsamples = 709\nvalue = [5, 704]", fillcolor="#399de5fd"] ;
3 -> 57 ;
58 [label="x <= -0.4086\nentropy = 0.3675\nsamples = 71\nvalue = [5, 66]", fillcolor="#399de5ec"] ;
57 -> 58 ;
59 [label="entropy = 0.0\nsamples = 5\nvalue = [5, 0]", fillcolor="#e58139ff"] ;
58 -> 59 ;
60 [label="entropy = 0.0\nsamples = 66\nvalue = [0, 66]", fillcolor="#399de5ff"] ;
58 -> 60 ;
61 [label="entropy = 0.0\nsamples = 638\nvalue = [0, 638]", fillcolor="#399de5ff"] ;
57 -> 61 ;
62 [label="x <= 0.4587\nentropy = 0.0078\nsamples = 1549\nvalue = [1, 1548]", fillcolor="#399de5ff"] ;
0 -> 62 [labeldistance=2.5, labelangle=-45, headlabel="False"] ;
63 [label="x <= 0.4584\nentropy = 0.0695\nsamples = 120\nvalue = [1, 119]", fillcolor="#399de5fd"] ;
62 -> 63 ;
64 [label="entropy = 0.0\nsamples = 119\nvalue = [0, 119]", fillcolor="#399de5ff"] ;
63 -> 64 ;
65 [label="entropy = 0.0\nsamples = 1\nvalue = [1, 0]", fillcolor="#e58139ff"] ;
63 -> 65 ;
66 [label="entropy = 0.0\nsamples = 1429\nvalue = [0, 1429]", fillcolor="#399de5ff"] ;
62 -> 66 ;
}