digraph Tree {
node [shape=box, style="filled, rounded", color="black", fontname=helvetica] ;
edge [fontname=helvetica] ;
0 [label="x-y <= -0.0001\nentropy = 0.5322\nsamples = 5000\nvalue = [605, 4395]", fillcolor="#399de5dc"] ;
1 [label="x <= -0.4996\nentropy = 0.7964\nsamples = 2512\nvalue = [605, 1907]", fillcolor="#399de5ae"] ;
0 -> 1 [labeldistance=2.5, labelangle=45, headlabel="True"] ;
2 [label="entropy = 0.0\nsamples = 1115\nvalue = [0, 1115]", fillcolor="#399de5ff"] ;
1 -> 2 ;
3 [label="y <= -0.5004\nentropy = 0.987\nsamples = 1397\nvalue = [605, 792]", fillcolor="#399de53c"] ;
1 -> 3 ;
4 [label="entropy = 0.0\nsamples = 792\nvalue = [0, 792]", fillcolor="#399de5ff"] ;
3 -> 4 ;
5 [label="entropy = 0.0\nsamples = 605\nvalue = [605, 0]", fillcolor="#e58139ff"] ;
3 -> 5 ;
6 [label="entropy = 0.0\nsamples = 2488\nvalue = [0, 2488]", fillcolor="#399de5ff"] ;
0 -> 6 [labeldistance=2.5, labelangle=-45, headlabel="False"] ;
}