digraph Tree {
node [shape=box, style="filled, rounded", color="black", fontname=helvetica] ;
edge [fontname=helvetica] ;
0 [label="y, <= 0.4075\nentropy = 0.5142\nsamples = 5000\nvalue = [574, 4426]", fillcolor="#399de5de"] ;
1 [label="y, <= -0.5002\nentropy = 0.6406\nsamples = 3517\nvalue = [572, 2945]", fillcolor="#399de5cd"] ;
0 -> 1 [labeldistance=2.5, labelangle=45, headlabel="True"] ;
2 [label="entropy = 0.0\nsamples = 1299\nvalue = [0, 1299]", fillcolor="#399de5ff"] ;
1 -> 2 ;
3 [label="x <= 0.3648\nentropy = 0.8235\nsamples = 2218\nvalue = [572, 1646]", fillcolor="#399de5a6"] ;
1 -> 3 ;
4 [label="x <= -0.5\nentropy = 0.9591\nsamples = 1473\nvalue = [562, 911]", fillcolor="#399de562"] ;
3 -> 4 ;
5 [label="entropy = 0.0\nsamples = 535\nvalue = [0, 535]", fillcolor="#399de5ff"] ;
4 -> 5 ;
6 [label="y, <= -0.0724\nentropy = 0.9714\nsamples = 938\nvalue = [562, 376]", fillcolor="#e5813954"] ;
4 -> 6 ;
7 [label="x <= 0.1143\nentropy = 0.4912\nsamples = 448\nvalue = [400, 48]", fillcolor="#e58139e0"] ;
6 -> 7 ;
8 [label="entropy = 0.0\nsamples = 324\nvalue = [324, 0]", fillcolor="#e58139ff"] ;
7 -> 8 ;
9 [label="y, <= -0.3182\nentropy = 0.9629\nsamples = 124\nvalue = [76, 48]", fillcolor="#e581395e"] ;
7 -> 9 ;
10 [label="entropy = 0.0\nsamples = 49\nvalue = [49, 0]", fillcolor="#e58139ff"] ;
9 -> 10 ;
11 [label="x <= 0.265\nentropy = 0.9427\nsamples = 75\nvalue = [27, 48]", fillcolor="#399de570"] ;
9 -> 11 ;
12 [label="y, <= -0.1793\nentropy = 0.9925\nsamples = 49\nvalue = [27, 22]", fillcolor="#e581392f"] ;
11 -> 12 ;
13 [label="y, <= -0.2065\nentropy = 0.4798\nsamples = 29\nvalue = [26, 3]", fillcolor="#e58139e2"] ;
12 -> 13 ;
14 [label="entropy = 0.0\nsamples = 21\nvalue = [21, 0]", fillcolor="#e58139ff"] ;
13 -> 14 ;
15 [label="entropy = 0.9544\nsamples = 8\nvalue = [5, 3]", fillcolor="#e5813966"] ;
13 -> 15 ;
16 [label="y, <= -0.1559\nentropy = 0.2864\nsamples = 20\nvalue = [1, 19]", fillcolor="#399de5f2"] ;
12 -> 16 ;
17 [label="entropy = 0.9183\nsamples = 3\nvalue = [1, 2]", fillcolor="#399de57f"] ;
16 -> 17 ;
18 [label="entropy = 0.0\nsamples = 17\nvalue = [0, 17]", fillcolor="#399de5ff"] ;
16 -> 18 ;
19 [label="entropy = 0.0\nsamples = 26\nvalue = [0, 26]", fillcolor="#399de5ff"] ;
11 -> 19 ;
20 [label="x <= -0.1406\nentropy = 0.9156\nsamples = 490\nvalue = [162, 328]", fillcolor="#399de581"] ;
6 -> 20 ;
21 [label="y, <= 0.2428\nentropy = 0.7107\nsamples = 180\nvalue = [145, 35]", fillcolor="#e58139c1"] ;
20 -> 21 ;
22 [label="y, <= 0.2094\nentropy = 0.0753\nsamples = 109\nvalue = [108, 1]", fillcolor="#e58139fd"] ;
21 -> 22 ;
23 [label="entropy = 0.0\nsamples = 99\nvalue = [99, 0]", fillcolor="#e58139ff"] ;
22 -> 23 ;
24 [label="x <= -0.2013\nentropy = 0.469\nsamples = 10\nvalue = [9, 1]", fillcolor="#e58139e3"] ;
22 -> 24 ;
25 [label="entropy = 0.0\nsamples = 9\nvalue = [9, 0]", fillcolor="#e58139ff"] ;
24 -> 25 ;
26 [label="entropy = 0.0\nsamples = 1\nvalue = [0, 1]", fillcolor="#399de5ff"] ;
24 -> 26 ;
27 [label="x <= -0.3794\nentropy = 0.9987\nsamples = 71\nvalue = [37, 34]", fillcolor="#e5813915"] ;
21 -> 27 ;
28 [label="entropy = 0.0\nsamples = 31\nvalue = [31, 0]", fillcolor="#e58139ff"] ;
27 -> 28 ;
29 [label="x <= -0.2656\nentropy = 0.6098\nsamples = 40\nvalue = [6, 34]", fillcolor="#399de5d2"] ;
27 -> 29 ;
30 [label="y, <= 0.2927\nentropy = 0.9544\nsamples = 16\nvalue = [6, 10]", fillcolor="#399de566"] ;
29 -> 30 ;
31 [label="entropy = 0.0\nsamples = 6\nvalue = [6, 0]", fillcolor="#e58139ff"] ;
30 -> 31 ;
32 [label="entropy = 0.0\nsamples = 10\nvalue = [0, 10]", fillcolor="#399de5ff"] ;
30 -> 32 ;
33 [label="entropy = 0.0\nsamples = 24\nvalue = [0, 24]", fillcolor="#399de5ff"] ;
29 -> 33 ;
34 [label="y, <= 0.037\nentropy = 0.3066\nsamples = 310\nvalue = [17, 293]", fillcolor="#399de5f0"] ;
20 -> 34 ;
35 [label="x <= 0.0551\nentropy = 0.8987\nsamples = 54\nvalue = [17, 37]", fillcolor="#399de58a"] ;
34 -> 35 ;
36 [label="y, <= 0.026\nentropy = 0.3095\nsamples = 18\nvalue = [17, 1]", fillcolor="#e58139f0"] ;
35 -> 36 ;
37 [label="entropy = 0.0\nsamples = 15\nvalue = [15, 0]", fillcolor="#e58139ff"] ;
36 -> 37 ;
38 [label="x <= -0.0482\nentropy = 0.9183\nsamples = 3\nvalue = [2, 1]", fillcolor="#e581397f"] ;
36 -> 38 ;
39 [label="entropy = 0.0\nsamples = 2\nvalue = [2, 0]", fillcolor="#e58139ff"] ;
38 -> 39 ;
40 [label="entropy = 0.0\nsamples = 1\nvalue = [0, 1]", fillcolor="#399de5ff"] ;
38 -> 40 ;
41 [label="entropy = 0.0\nsamples = 36\nvalue = [0, 36]", fillcolor="#399de5ff"] ;
35 -> 41 ;
42 [label="entropy = 0.0\nsamples = 256\nvalue = [0, 256]", fillcolor="#399de5ff"] ;
34 -> 42 ;
43 [label="y, <= -0.4262\nentropy = 0.1027\nsamples = 745\nvalue = [10, 735]", fillcolor="#399de5fc"] ;
3 -> 43 ;
44 [label="x <= 0.4504\nentropy = 0.608\nsamples = 67\nvalue = [10, 57]", fillcolor="#399de5d2"] ;
43 -> 44 ;
45 [label="entropy = 0.0\nsamples = 9\nvalue = [9, 0]", fillcolor="#e58139ff"] ;
44 -> 45 ;
46 [label="x <= 0.4744\nentropy = 0.1257\nsamples = 58\nvalue = [1, 57]", fillcolor="#399de5fb"] ;
44 -> 46 ;
47 [label="y, <= -0.4777\nentropy = 0.8113\nsamples = 4\nvalue = [1, 3]", fillcolor="#399de5aa"] ;
46 -> 47 ;
48 [label="entropy = 0.0\nsamples = 1\nvalue = [1, 0]", fillcolor="#e58139ff"] ;
47 -> 48 ;
49 [label="entropy = 0.0\nsamples = 3\nvalue = [0, 3]", fillcolor="#399de5ff"] ;
47 -> 49 ;
50 [label="entropy = 0.0\nsamples = 54\nvalue = [0, 54]", fillcolor="#399de5ff"] ;
46 -> 50 ;
51 [label="entropy = 0.0\nsamples = 678\nvalue = [0, 678]", fillcolor="#399de5ff"] ;
43 -> 51 ;
52 [label="y, <= 0.4502\nentropy = 0.0148\nsamples = 1483\nvalue = [2, 1481]", fillcolor="#399de5ff"] ;
0 -> 52 [labeldistance=2.5, labelangle=-45, headlabel="False"] ;
53 [label="y, <= 0.4499\nentropy = 0.1257\nsamples = 116\nvalue = [2, 114]", fillcolor="#399de5fb"] ;
52 -> 53 ;
54 [label="x <= -0.4568\nentropy = 0.072\nsamples = 115\nvalue = [1, 114]", fillcolor="#399de5fd"] ;
53 -> 54 ;
55 [label="x <= -0.5055\nentropy = 0.2499\nsamples = 24\nvalue = [1, 23]", fillcolor="#399de5f4"] ;
54 -> 55 ;
56 [label="entropy = 0.0\nsamples = 23\nvalue = [0, 23]", fillcolor="#399de5ff"] ;
55 -> 56 ;
57 [label="entropy = 0.0\nsamples = 1\nvalue = [1, 0]", fillcolor="#e58139ff"] ;
55 -> 57 ;
58 [label="entropy = 0.0\nsamples = 91\nvalue = [0, 91]", fillcolor="#399de5ff"] ;
54 -> 58 ;
59 [label="entropy = 0.0\nsamples = 1\nvalue = [1, 0]", fillcolor="#e58139ff"] ;
53 -> 59 ;
60 [label="entropy = 0.0\nsamples = 1367\nvalue = [0, 1367]", fillcolor="#399de5ff"] ;
52 -> 60 ;
}